<?xml version="1.0"?>
<opencv_storage>
<opencv_ml_rtrees>
  <format>3</format>
  <is_classifier>0</is_classifier>
  <var_all>61</var_all>
  <var_count>60</var_count>
  <ord_var_count>61</ord_var_count>
  <cat_var_count>0</cat_var_count>
  <training_params>
    <use_surrogates>0</use_surrogates>
    <max_categories>15</max_categories>
    <regression_accuracy>0.</regression_accuracy>
    <max_depth>4</max_depth>
    <min_sample_count>2</min_sample_count>
    <cross_validation_folds>0</cross_validation_folds>
    <nactive_vars>1</nactive_vars></training_params>
  <global_var_idx>1</global_var_idx>
  <var_idx>
    0 1 2 3 4 5 6 7 8 9 10 11 12 13 14 15 16 17 18 19 20 21 22 23 24 25
    26 27 28 29 30 31 32 33 34 35 36 37 38 39 40 41 42 43 44 45 46 47 48
    49 50 51 52 53 54 55 56 57 58 59</var_idx>
  <var_type>
    0 0 0 0 0 0 0 0 0 0 0 0 0 0 0 0 0 0 0 0 0 0 0 0 0 0 0 0 0 0 0 0 0 0
    0 0 0 0 0 0 0 0 0 0 0 0 0 0 0 0 0 0 0 0 0 0 0 0 0 0 0</var_type>
  <cat_ofs>
    0 0 0 0 0 0 0 0 0 0 0 0 0 0 0 0 0 0 0 0 0 0 0 0 0 0 0 0 0 0 0 0 0 0
    0 0 0 0 0 0 0 0 0 0 0 0 0 0 0 0 0 0 0 0 0 0 0 0 0 0 0 0 0 0 0 0 0 0
    0 0 0 0 0 0 0 0 0 0 0 0 0 0 0 0 0 0 0 0 0 0 0 0 0 0 0 0 0 0 0 0 0 0
    0 0 0 0 0 0 0 0 0 0 0 0 0 0 0 0 0 0</cat_ofs>
  <missing_subst>
    0. 0. 0. 0. 0. 0. 0. 0. 0. 0. 0. 0. 0. 0. 0. 0. 0. 0. 0. 0. 0. 0. 0.
    0. 0. 0. 0. 0. 0. 0. 0. 0. 0. 0. 0. 0. 0. 0. 0. 0. 0. 0. 0. 0. 0. 0.
    0. 0. 0. 0. 0. 0. 0. 0. 0. 0. 0. 0. 0. 0. 0.</missing_subst>
  <oob_error>0.</oob_error>
  <ntrees>5</ntrees>
  <trees>
    <_>
      <nodes>
        <_>
          <depth>0</depth>
          <value>9.0757869779593314e-01</value>
          <splits>
            <_><var>34</var>
              <quality>2.5238443750000000e+05</quality>
              <le>6.5500000000000000e+01</le></_></splits></_>
        <_>
          <depth>1</depth>
          <value>-7.4602377364808303e-01</value>
          <splits>
            <_><var>47</var>
              <quality>7.4306845703125000e+03</quality>
              <le>109.</le></_></splits></_>
        <_>
          <depth>2</depth>
          <value>-8.1844484629294756e-01</value>
          <splits>
            <_><var>52</var>
              <quality>7.8447050781250000e+03</quality>
              <le>8.5000000000000000e+00</le></_></splits></_>
        <_>
          <depth>3</depth>
          <value>-3.4149326805385555e-01</value>
          <splits>
            <_><var>40</var>
              <quality>9.4212823486328125e+02</quality>
              <le>2.0500000000000000e+01</le></_></splits></_>
        <_>
          <depth>4</depth>
          <value>-7.7566867989646249e-01</value></_>
        <_>
          <depth>4</depth>
          <value>7.1789473684210525e-01</value></_>
        <_>
          <depth>3</depth>
          <value>-9.0112454911945683e-01</value></_>
        <_>
          <depth>2</depth>
          <value>1.5801354401805870e-01</value></_>
        <_>
          <depth>1</depth>
          <value>9.8567971912955465e-01</value>
          <splits>
            <_><var>4</var>
              <quality>2.4665304687500000e+05</quality>
              <le>1.1168470764160156e+02</le></_></splits></_>
        <_>
          <depth>2</depth>
          <value>9.9772205820675819e-01</value>
          <splits>
            <_><var>34</var>
              <quality>2.4212232812500000e+05</quality>
              <le>70.</le></_></splits></_>
        <_>
          <depth>3</depth>
          <value>9.9995703636871391e-01</value>
          <splits>
            <_><var>20</var>
              <quality>232755.</quality>
              <le>1.</le></_></splits></_>
        <_>
          <depth>4</depth>
          <value>-1.</value></_>
        <_>
          <depth>4</depth>
          <value>1.</value></_>
        <_>
          <depth>3</depth>
          <value>9.4792763472767305e-01</value>
          <splits>
            <_><var>20</var>
              <quality>9.7976650390625000e+03</quality>
              <le>5.0000000000000000e-01</le></_></splits></_>
        <_>
          <depth>4</depth>
          <value>-5.9763313609467461e-01</value></_>
        <_>
          <depth>4</depth>
          <value>9.7334111694882275e-01</value></_>
        <_>
          <depth>2</depth>
          <value>6.8455685790664200e-01</value></_></nodes></_>
    <_>
      <nodes>
        <_>
          <depth>0</depth>
          <value>8.7612573498399782e-01</value></_></nodes></_>
    <_>
      <nodes>
        <_>
          <depth>0</depth>
          <value>9.5715854638472431e-01</value></_></nodes></_>
    <_>
      <nodes>
        <_>
          <depth>0</depth>
          <value>9.1182426213413514e-01</value></_></nodes></_>
    <_>
      <nodes>
        <_>
          <depth>0</depth>
          <value>2.2194337421794916e-01</value>
          <splits>
            <_><var>1</var>
              <quality>6.4425092773437500e+03</quality>
              <le>26.</le></_></splits></_>
        <_>
          <depth>1</depth>
          <value>-2.0584641413666699e-02</value>
          <splits>
            <_><var>3</var>
              <quality>1.6476363525390625e+03</quality>
              <le>1.5000000000000000e+00</le></_></splits></_>
        <_>
          <depth>2</depth>
          <value>-6.9385113268608412e-01</value>
          <splits>
            <_><var>10</var>
              <quality>1.8335244140625000e+03</quality>
              <le>1.5000000000000000e+00</le></_></splits></_>
        <_>
          <depth>3</depth>
          <value>-7.8984238178633981e-01</value>
          <splits>
            <_><var>36</var>
              <quality>1.9065529785156250e+03</quality>
              <le>1.6650000000000000e+02</le></_></splits></_>
        <_>
          <depth>4</depth>
          <value>-8.1637010676156585e-01</value></_>
        <_>
          <depth>4</depth>
          <value>8.6666666666666670e-01</value></_>
        <_>
          <depth>3</depth>
          <value>4.7234042553191491e-01</value>
          <splits>
            <_><var>56</var>
              <quality>8.4936302185058594e+01</quality>
              <le>1.3850000000000000e+02</le></_></splits></_>
        <_>
          <depth>4</depth>
          <value>2.1019108280254778e-01</value></_>
        <_>
          <depth>4</depth>
          <value>1.</value></_>
        <_>
          <depth>2</depth>
          <value>9.3798108643061359e-02</value>
          <splits>
            <_><var>55</var>
              <quality>8.4464863281250000e+03</quality>
              <le>7.8500000000000000e+01</le></_></splits></_>
        <_>
          <depth>3</depth>
          <value>-6.6579439252336448e-01</value>
          <splits>
            <_><var>36</var>
              <quality>4.4551494140625000e+03</quality>
              <le>1.3500000000000000e+01</le></_></splits></_>
        <_>
          <depth>4</depth>
          <value>-5.1254089422028352e-02</value></_>
        <_>
          <depth>4</depth>
          <value>-8.4784364399935386e-01</value></_>
        <_>
          <depth>3</depth>
          <value>6.9359441109908493e-01</value>
          <splits>
            <_><var>53</var>
              <quality>6.2569028320312500e+03</quality>
              <le>8.4500000000000000e+01</le></_></splits></_>
        <_>
          <depth>4</depth>
          <value>-2.6050420168067229e-01</value></_>
        <_>
          <depth>4</depth>
          <value>8.3465100519539193e-01</value></_>
        <_>
          <depth>1</depth>
          <value>9.5779267075431340e-01</value></_></nodes></_></trees></opencv_ml_rtrees>
</opencv_storage>
