<?xml version="1.0"?>
<opencv_storage>
<opencv_ml_rtrees>
  <format>3</format>
  <is_classifier>0</is_classifier>
  <var_all>61</var_all>
  <var_count>60</var_count>
  <ord_var_count>61</ord_var_count>
  <cat_var_count>0</cat_var_count>
  <training_params>
    <use_surrogates>0</use_surrogates>
    <max_categories>15</max_categories>
    <regression_accuracy>0.</regression_accuracy>
    <max_depth>4</max_depth>
    <min_sample_count>2</min_sample_count>
    <cross_validation_folds>0</cross_validation_folds>
    <nactive_vars>1</nactive_vars></training_params>
  <global_var_idx>1</global_var_idx>
  <var_idx>
    0 1 2 3 4 5 6 7 8 9 10 11 12 13 14 15 16 17 18 19 20 21 22 23 24 25
    26 27 28 29 30 31 32 33 34 35 36 37 38 39 40 41 42 43 44 45 46 47 48
    49 50 51 52 53 54 55 56 57 58 59</var_idx>
  <var_type>
    0 0 0 0 0 0 0 0 0 0 0 0 0 0 0 0 0 0 0 0 0 0 0 0 0 0 0 0 0 0 0 0 0 0
    0 0 0 0 0 0 0 0 0 0 0 0 0 0 0 0 0 0 0 0 0 0 0 0 0 0 0</var_type>
  <cat_ofs>
    0 0 0 0 0 0 0 0 0 0 0 0 0 0 0 0 0 0 0 0 0 0 0 0 0 0 0 0 0 0 0 0 0 0
    0 0 0 0 0 0 0 0 0 0 0 0 0 0 0 0 0 0 0 0 0 0 0 0 0 0 0 0 0 0 0 0 0 0
    0 0 0 0 0 0 0 0 0 0 0 0 0 0 0 0 0 0 0 0 0 0 0 0 0 0 0 0 0 0 0 0 0 0
    0 0 0 0 0 0 0 0 0 0 0 0 0 0 0 0 0 0</cat_ofs>
  <missing_subst>
    0. 0. 0. 0. 0. 0. 0. 0. 0. 0. 0. 0. 0. 0. 0. 0. 0. 0. 0. 0. 0. 0. 0.
    0. 0. 0. 0. 0. 0. 0. 0. 0. 0. 0. 0. 0. 0. 0. 0. 0. 0. 0. 0. 0. 0. 0.
    0. 0. 0. 0. 0. 0. 0. 0. 0. 0. 0. 0. 0. 0. 0.</missing_subst>
  <oob_error>0.</oob_error>
  <ntrees>5</ntrees>
  <trees>
    <_>
      <nodes>
        <_>
          <depth>0</depth>
          <value>-1.0633825124547645e-01</value>
          <splits>
            <_><var>58</var>
              <quality>2.4309734375000000e+05</quality>
              <le>3.5500000000000000e+01</le></_></splits></_>
        <_>
          <depth>1</depth>
          <value>-7.6697569185773806e-01</value>
          <splits>
            <_><var>44</var>
              <quality>1.8027048437500000e+05</quality>
              <le>6.8500000000000000e+01</le></_></splits></_>
        <_>
          <depth>2</depth>
          <value>-7.9284676514354668e-01</value></_>
        <_>
          <depth>2</depth>
          <value>5.2754796690723460e-01</value>
          <splits>
            <_><var>54</var>
              <quality>2.0976516113281250e+03</quality>
              <le>2.7500000000000000e+01</le></_></splits></_>
        <_>
          <depth>3</depth>
          <value>8.4541062801932365e-01</value>
          <splits>
            <_><var>7</var>
              <quality>2.5801257324218750e+03</quality>
              <le>2.5000000000000000e+00</le></_></splits></_>
        <_>
          <depth>4</depth>
          <value>-8.4834123222748814e-01</value></_>
        <_>
          <depth>4</depth>
          <value>9.8951612903225805e-01</value></_>
        <_>
          <depth>3</depth>
          <value>2.4147157190635452e-01</value>
          <splits>
            <_><var>7</var>
              <quality>8.9994580078125000e+02</quality>
              <le>2.2500000000000000e+01</le></_></splits></_>
        <_>
          <depth>4</depth>
          <value>-7.8459343794579167e-02</value></_>
        <_>
          <depth>4</depth>
          <value>1.</value></_>
        <_>
          <depth>1</depth>
          <value>4.6524507785317409e-01</value>
          <splits>
            <_><var>56</var>
              <quality>1.3073007812500000e+05</quality>
              <le>4.4500000000000000e+01</le></_></splits></_>
        <_>
          <depth>2</depth>
          <value>-5.9824231010671691e-01</value>
          <splits>
            <_><var>56</var>
              <quality>1.6729162109375000e+04</quality>
              <le>1.8500000000000000e+01</le></_></splits></_>
        <_>
          <depth>3</depth>
          <value>-2.6587764627437904e-01</value>
          <splits>
            <_><var>56</var>
              <quality>3.0270917968750000e+03</quality>
              <le>1.7500000000000000e+01</le></_></splits></_>
        <_>
          <depth>4</depth>
          <value>-7.1694417238001962e-01</value></_>
        <_>
          <depth>4</depth>
          <value>6.9608355091383811e-01</value></_>
        <_>
          <depth>3</depth>
          <value>-6.4988991063333768e-01</value>
          <splits>
            <_><var>49</var>
              <quality>1.7503191406250000e+04</quality>
              <le>5.1500000000000000e+01</le></_></splits></_>
        <_>
          <depth>4</depth>
          <value>-7.8312566169883546e-01</value></_>
        <_>
          <depth>4</depth>
          <value>-4.1695735744287038e-01</value></_>
        <_>
          <depth>2</depth>
          <value>6.2852736873266002e-01</value>
          <splits>
            <_><var>5</var>
              <quality>2.0742464062500000e+05</quality>
              <le>7.8673076629638672e-01</le></_></splits></_>
        <_>
          <depth>3</depth>
          <value>-3.7279456861262855e-01</value></_>
        <_>
          <depth>3</depth>
          <value>9.4705153741101533e-01</value></_></nodes></_>
    <_>
      <nodes>
        <_>
          <depth>0</depth>
          <value>-4.7070530210027425e-02</value>
          <splits>
            <_><var>38</var>
              <quality>2.6524503125000000e+05</quality>
              <le>4.1500000000000000e+01</le></_></splits></_>
        <_>
          <depth>1</depth>
          <value>-7.6243177465113265e-01</value>
          <splits>
            <_><var>0</var>
              <quality>1.7412757812500000e+05</quality>
              <le>2.4765000000000000e+03</le></_></splits></_>
        <_>
          <depth>2</depth>
          <value>-8.2730672581196985e-01</value>
          <splits>
            <_><var>5</var>
              <quality>1.7484156250000000e+05</quality>
              <le>4.1472810506820679e-01</le></_></splits></_>
        <_>
          <depth>3</depth>
          <value>-8.7855831369544157e-01</value>
          <splits>
            <_><var>16</var>
              <quality>1.0730216406250000e+05</quality>
              <le>380.</le></_></splits></_>
        <_>
          <depth>4</depth>
          <value>-8.4737124219821747e-01</value></_>
        <_>
          <depth>4</depth>
          <value>-1.</value></_>
        <_>
          <depth>3</depth>
          <value>-7.6615984338211829e-01</value>
          <splits>
            <_><var>20</var>
              <quality>7.2495656250000000e+04</quality>
              <le>6.3500000000000000e+01</le></_></splits></_>
        <_>
          <depth>4</depth>
          <value>-8.0834529257263543e-01</value></_>
        <_>
          <depth>4</depth>
          <value>1.3997673516867001e-01</value></_>
        <_>
          <depth>2</depth>
          <value>-5.9445178335535004e-02</value>
          <splits>
            <_><var>46</var>
              <quality>8.3346972656250000e+03</quality>
              <le>4.</le></_></splits></_>
        <_>
          <depth>3</depth>
          <value>1.</value></_>
        <_>
          <depth>3</depth>
          <value>-3.9134814483183167e-01</value>
          <splits>
            <_><var>50</var>
              <quality>9.5801660156250000e+03</quality>
              <le>5.0000000000000000e-01</le></_></splits></_>
        <_>
          <depth>4</depth>
          <value>-1.</value></_>
        <_>
          <depth>4</depth>
          <value>2.3787844297746416e-01</value></_>
        <_>
          <depth>1</depth>
          <value>5.6578545585772322e-01</value>
          <splits>
            <_><var>31</var>
              <quality>2.3491050000000000e+05</quality>
              <le>60.</le></_></splits></_>
        <_>
          <depth>2</depth>
          <value>-4.4974761576279165e-01</value>
          <splits>
            <_><var>52</var>
              <quality>2.3362498046875000e+04</quality>
              <le>7.4500000000000000e+01</le></_></splits></_>
        <_>
          <depth>3</depth>
          <value>-5.7869812295505429e-01</value>
          <splits>
            <_><var>39</var>
              <quality>2.6071687500000000e+04</quality>
              <le>6.8500000000000000e+01</le></_></splits></_>
        <_>
          <depth>4</depth>
          <value>-6.7942929384143036e-01</value></_>
        <_>
          <depth>4</depth>
          <value>-1.8904568953472126e-01</value></_>
        <_>
          <depth>3</depth>
          <value>-3.4603834603834607e-02</value>
          <splits>
            <_><var>3</var>
              <quality>3.5994245605468750e+03</quality>
              <le>5.5000000000000000e+00</le></_></splits></_>
        <_>
          <depth>4</depth>
          <value>-6.7324033990700660e-01</value></_>
        <_>
          <depth>4</depth>
          <value>2.2390965732087229e-01</value></_>
        <_>
          <depth>2</depth>
          <value>9.6404218409165077e-01</value>
          <splits>
            <_><var>34</var>
              <quality>2.2044839062500000e+05</quality>
              <le>45.</le></_></splits></_>
        <_>
          <depth>3</depth>
          <value>1.</value>
          <splits>
            <_><var>34</var>
              <quality>216623.</quality>
              <le>12.</le></_></splits></_>
        <_>
          <depth>4</depth>
          <value>1.</value></_>
        <_>
          <depth>4</depth>
          <value>1.</value></_>
        <_>
          <depth>3</depth>
          <value>4.8502552118565895e-01</value>
          <splits>
            <_><var>34</var>
              <quality>1.2074372070312500e+04</quality>
              <le>4.9500000000000000e+01</le></_></splits></_>
        <_>
          <depth>4</depth>
          <value>-1.</value></_>
        <_>
          <depth>4</depth>
          <value>8.2662632375189105e-01</value></_></nodes></_>
    <_>
      <nodes>
        <_>
          <depth>0</depth>
          <value>-6.2024395717207781e-01</value>
          <splits>
            <_><var>53</var>
              <quality>1.7934259375000000e+05</quality>
              <le>4.5500000000000000e+01</le></_></splits></_>
        <_>
          <depth>1</depth>
          <value>-7.6066016756309474e-01</value>
          <splits>
            <_><var>38</var>
              <quality>1.8834167187500000e+05</quality>
              <le>5.0000000000000000e-01</le></_></splits></_>
        <_>
          <depth>2</depth>
          <value>8.3161074892669745e-02</value>
          <splits>
            <_><var>37</var>
              <quality>5.9133969726562500e+03</quality>
              <le>5.0000000000000000e-01</le></_></splits></_>
        <_>
          <depth>3</depth>
          <value>6.7176209005002774e-01</value>
          <splits>
            <_><var>46</var>
              <quality>4.8075117187500000e+03</quality>
              <le>5.0000000000000000e-01</le></_></splits></_>
        <_>
          <depth>4</depth>
          <value>8.6753883892068684e-01</value></_>
        <_>
          <depth>4</depth>
          <value>-4.3570767807585570e-01</value></_>
        <_>
          <depth>3</depth>
          <value>-7.0382757339279078e-01</value>
          <splits>
            <_><var>52</var>
              <quality>3.2007363281250000e+03</quality>
              <le>5.0000000000000000e-01</le></_></splits></_>
        <_>
          <depth>4</depth>
          <value>6.7532467532467527e-02</value></_>
        <_>
          <depth>4</depth>
          <value>-8.3261058109280139e-01</value></_>
        <_>
          <depth>2</depth>
          <value>-7.9642046105431974e-01</value>
          <splits>
            <_><var>23</var>
              <quality>1.9150092187500000e+05</quality>
              <le>81.</le></_></splits></_>
        <_>
          <depth>3</depth>
          <value>-8.5328630299643782e-01</value>
          <splits>
            <_><var>46</var>
              <quality>1.7033137500000000e+05</quality>
              <le>4.6500000000000000e+01</le></_></splits></_>
        <_>
          <depth>4</depth>
          <value>-9.0644989751823757e-01</value></_>
        <_>
          <depth>4</depth>
          <value>-5.6222617937194386e-01</value></_>
        <_>
          <depth>3</depth>
          <value>-6.0408115051826472e-01</value></_>
        <_>
          <depth>1</depth>
          <value>-6.5542999425397430e-02</value>
          <splits>
            <_><var>35</var>
              <quality>3.9391215820312500e+03</quality>
              <le>8.9500000000000000e+01</le></_></splits></_>
        <_>
          <depth>2</depth>
          <value>-1.7460827641623142e-01</value>
          <splits>
            <_><var>37</var>
              <quality>4.2107402343750000e+03</quality>
              <le>6.1500000000000000e+01</le></_></splits></_>
        <_>
          <depth>3</depth>
          <value>-3.7763470010166045e-01</value>
          <splits>
            <_><var>39</var>
              <quality>8.9211718750000000e+03</quality>
              <le>3.5500000000000000e+01</le></_></splits></_>
        <_>
          <depth>4</depth>
          <value>2.8223260512690995e-01</value></_>
        <_>
          <depth>4</depth>
          <value>-6.1965633828910194e-01</value></_>
        <_>
          <depth>3</depth>
          <value>8.5281980742778537e-03</value>
          <splits>
            <_><var>5</var>
              <quality>1.0259011718750000e+04</quality>
              <le>1.8064050376415253e-01</le></_></splits></_>
        <_>
          <depth>4</depth>
          <value>9.9924242424242427e-01</value></_>
        <_>
          <depth>4</depth>
          <value>-3.0792498487598308e-01</value></_>
        <_>
          <depth>2</depth>
          <value>3.5624611559975139e-01</value>
          <splits>
            <_><var>35</var>
              <quality>3.2885576171875000e+03</quality>
              <le>1.1950000000000000e+02</le></_></splits></_>
        <_>
          <depth>3</depth>
          <value>5.8304033092037233e-01</value></_>
        <_>
          <depth>3</depth>
          <value>1.4641744548286604e-02</value></_></nodes></_>
    <_>
      <nodes>
        <_>
          <depth>0</depth>
          <value>-6.4727335789246887e-01</value>
          <splits>
            <_><var>56</var>
              <quality>1.7881496875000000e+05</quality>
              <le>6.3500000000000000e+01</le></_></splits></_>
        <_>
          <depth>1</depth>
          <value>-7.3117855027727430e-01</value>
          <splits>
            <_><var>49</var>
              <quality>1.8410248437500000e+05</quality>
              <le>4.4500000000000000e+01</le></_></splits></_>
        <_>
          <depth>2</depth>
          <value>-7.9821122273952461e-01</value>
          <splits>
            <_><var>1</var>
              <quality>1.7117242187500000e+05</quality>
              <le>3.5500000000000000e+01</le></_></splits></_>
        <_>
          <depth>3</depth>
          <value>-8.9176966626430232e-01</value>
          <splits>
            <_><var>0</var>
              <quality>1.4055267187500000e+05</quality>
              <le>194.</le></_></splits></_>
        <_>
          <depth>4</depth>
          <value>-9.1013620071684587e-01</value></_>
        <_>
          <depth>4</depth>
          <value>-8.2244229780555778e-01</value></_>
        <_>
          <depth>3</depth>
          <value>-6.0336138421046415e-01</value>
          <splits>
            <_><var>39</var>
              <quality>3.7393304687500000e+04</quality>
              <le>49.</le></_></splits></_>
        <_>
          <depth>4</depth>
          <value>-6.5914448482467336e-01</value></_>
        <_>
          <depth>4</depth>
          <value>7.8225068618481242e-01</value></_>
        <_>
          <depth>2</depth>
          <value>-4.9181045090372155e-01</value>
          <splits>
            <_><var>36</var>
              <quality>2.0300115234375000e+04</quality>
              <le>3.5500000000000000e+01</le></_></splits></_>
        <_>
          <depth>3</depth>
          <value>-1.2804878048780487e-02</value>
          <splits>
            <_><var>37</var>
              <quality>3.8481408691406250e+03</quality>
              <le>3.4500000000000000e+01</le></_></splits></_>
        <_>
          <depth>4</depth>
          <value>-9.5982591228657521e-01</value></_>
        <_>
          <depth>4</depth>
          <value>3.9997081570115278e-01</value></_>
        <_>
          <depth>3</depth>
          <value>-5.6626962813181259e-01</value>
          <splits>
            <_><var>37</var>
              <quality>2.2391408203125000e+04</quality>
              <le>6.0500000000000000e+01</le></_></splits></_>
        <_>
          <depth>4</depth>
          <value>-6.9844029166063060e-01</value></_>
        <_>
          <depth>4</depth>
          <value>-3.1612136720891976e-01</value></_>
        <_>
          <depth>1</depth>
          <value>-4.0776615065294473e-02</value>
          <splits>
            <_><var>37</var>
              <quality>7.8611049804687500e+03</quality>
              <le>8.0500000000000000e+01</le></_></splits></_>
        <_>
          <depth>2</depth>
          <value>-5.4231163367671642e-01</value>
          <splits>
            <_><var>29</var>
              <quality>9.8205527343750000e+03</quality>
              <le>4.9500000000000000e+01</le></_></splits></_>
        <_>
          <depth>3</depth>
          <value>-8.5921993999538426e-01</value>
          <splits>
            <_><var>54</var>
              <quality>9.7004023437500000e+03</quality>
              <le>6.5000000000000000e+00</le></_></splits></_>
        <_>
          <depth>4</depth>
          <value>-4.1796875000000000e-01</value></_>
        <_>
          <depth>4</depth>
          <value>-8.7731240490109719e-01</value></_>
        <_>
          <depth>3</depth>
          <value>2.0101046553590762e-01</value>
          <splits>
            <_><var>50</var>
              <quality>1.8234031982421875e+03</quality>
              <le>57.</le></_></splits></_>
        <_>
          <depth>4</depth>
          <value>-1.</value></_>
        <_>
          <depth>4</depth>
          <value>4.4131658726721523e-01</value></_>
        <_>
          <depth>2</depth>
          <value>2.9479268160658223e-01</value>
          <splits>
            <_><var>39</var>
              <quality>7.6466020507812500e+03</quality>
              <le>110.</le></_></splits></_>
        <_>
          <depth>3</depth>
          <value>-7.0483225607879341e-02</value>
          <splits>
            <_><var>59</var>
              <quality>2.5904780273437500e+03</quality>
              <le>167.</le></_></splits></_>
        <_>
          <depth>4</depth>
          <value>1.2853828306264500e-01</value></_>
        <_>
          <depth>4</depth>
          <value>-8.4675716440422322e-01</value></_>
        <_>
          <depth>3</depth>
          <value>8.1231466945752662e-01</value>
          <splits>
            <_><var>35</var>
              <quality>8.2646386718750000e+03</quality>
              <le>1.7550000000000000e+02</le></_></splits></_>
        <_>
          <depth>4</depth>
          <value>8.6965713760455921e-01</value></_>
        <_>
          <depth>4</depth>
          <value>-2.5042589437819418e-01</value></_></nodes></_>
    <_>
      <nodes>
        <_>
          <depth>0</depth>
          <value>-6.3399465447201897e-01</value>
          <splits>
            <_><var>36</var>
              <quality>1.7927535937500000e+05</quality>
              <le>7.4500000000000000e+01</le></_></splits></_>
        <_>
          <depth>1</depth>
          <value>-7.2761675740987475e-01</value>
          <splits>
            <_><var>1</var>
              <quality>1.8878707812500000e+05</quality>
              <le>104.</le></_></splits></_>
        <_>
          <depth>2</depth>
          <value>-7.7982400171010480e-01</value></_>
        <_>
          <depth>2</depth>
          <value>-1.8576038725292457e-01</value>
          <splits>
            <_><var>54</var>
              <quality>1.0721949218750000e+04</quality>
              <le>5.0000000000000000e-01</le></_></splits></_>
        <_>
          <depth>3</depth>
          <value>1.</value></_>
        <_>
          <depth>3</depth>
          <value>-4.6062111801242234e-01</value>
          <splits>
            <_><var>10</var>
              <quality>2.0318089843750000e+04</quality>
              <le>1038.</le></_></splits></_>
        <_>
          <depth>4</depth>
          <value>-8.9136729222520106e-01</value></_>
        <_>
          <depth>4</depth>
          <value>1.</value></_>
        <_>
          <depth>1</depth>
          <value>3.6831632869057197e-02</value>
          <splits>
            <_><var>48</var>
              <quality>8.3451635742187500e+02</quality>
              <le>89.</le></_></splits></_>
        <_>
          <depth>2</depth>
          <value>-1.0636467889908256e-01</value>
          <splits>
            <_><var>35</var>
              <quality>3.7392583007812500e+03</quality>
              <le>3.5000000000000000e+00</le></_></splits></_>
        <_>
          <depth>3</depth>
          <value>8.2462356067316211e-01</value>
          <splits>
            <_><var>35</var>
              <quality>2.3296232910156250e+03</quality>
              <le>5.0000000000000000e-01</le></_></splits></_>
        <_>
          <depth>4</depth>
          <value>8.4716981132075475e-01</value></_>
        <_>
          <depth>4</depth>
          <value>4.7826086956521741e-01</value></_>
        <_>
          <depth>3</depth>
          <value>-2.8612963913117839e-01</value>
          <splits>
            <_><var>35</var>
              <quality>3.3264648437500000e+03</quality>
              <le>6.9500000000000000e+01</le></_></splits></_>
        <_>
          <depth>4</depth>
          <value>-6.6119069522933371e-01</value></_>
        <_>
          <depth>4</depth>
          <value>1.2082158679017317e-03</value></_>
        <_>
          <depth>2</depth>
          <value>1.5071824884092119e-01</value>
          <splits>
            <_><var>35</var>
              <quality>3.5681450195312500e+03</quality>
              <le>4.6500000000000000e+01</le></_></splits></_>
        <_>
          <depth>3</depth>
          <value>-4.5926530612244898e-01</value>
          <splits>
            <_><var>35</var>
              <quality>2.2640598144531250e+03</quality>
              <le>3.5000000000000000e+00</le></_></splits></_>
        <_>
          <depth>4</depth>
          <value>2.9864253393665158e-01</value></_>
        <_>
          <depth>4</depth>
          <value>-6.6868097520316727e-01</value></_>
        <_>
          <depth>3</depth>
          <value>3.3577690821734607e-01</value>
          <splits>
            <_><var>15</var>
              <quality>7.0660898437500000e+03</quality>
              <le>2.0500000000000000e+01</le></_></splits></_>
        <_>
          <depth>4</depth>
          <value>-1.5886910151926753e-01</value></_>
        <_>
          <depth>4</depth>
          <value>8.1541463414634141e-01</value></_></nodes></_></trees></opencv_ml_rtrees>
</opencv_storage>
