<?xml version="1.0"?>
<opencv_storage>
<opencv_ml_rtrees>
  <format>3</format>
  <is_classifier>0</is_classifier>
  <var_all>61</var_all>
  <var_count>60</var_count>
  <ord_var_count>61</ord_var_count>
  <cat_var_count>0</cat_var_count>
  <training_params>
    <use_surrogates>0</use_surrogates>
    <max_categories>15</max_categories>
    <regression_accuracy>0.</regression_accuracy>
    <max_depth>4</max_depth>
    <min_sample_count>2</min_sample_count>
    <cross_validation_folds>0</cross_validation_folds>
    <nactive_vars>1</nactive_vars></training_params>
  <global_var_idx>1</global_var_idx>
  <var_idx>
    0 1 2 3 4 5 6 7 8 9 10 11 12 13 14 15 16 17 18 19 20 21 22 23 24 25
    26 27 28 29 30 31 32 33 34 35 36 37 38 39 40 41 42 43 44 45 46 47 48
    49 50 51 52 53 54 55 56 57 58 59</var_idx>
  <var_type>
    0 0 0 0 0 0 0 0 0 0 0 0 0 0 0 0 0 0 0 0 0 0 0 0 0 0 0 0 0 0 0 0 0 0
    0 0 0 0 0 0 0 0 0 0 0 0 0 0 0 0 0 0 0 0 0 0 0 0 0 0 0</var_type>
  <cat_ofs>
    0 0 0 0 0 0 0 0 0 0 0 0 0 0 0 0 0 0 0 0 0 0 0 0 0 0 0 0 0 0 0 0 0 0
    0 0 0 0 0 0 0 0 0 0 0 0 0 0 0 0 0 0 0 0 0 0 0 0 0 0 0 0 0 0 0 0 0 0
    0 0 0 0 0 0 0 0 0 0 0 0 0 0 0 0 0 0 0 0 0 0 0 0 0 0 0 0 0 0 0 0 0 0
    0 0 0 0 0 0 0 0 0 0 0 0 0 0 0 0 0 0</cat_ofs>
  <missing_subst>
    0. 0. 0. 0. 0. 0. 0. 0. 0. 0. 0. 0. 0. 0. 0. 0. 0. 0. 0. 0. 0. 0. 0.
    0. 0. 0. 0. 0. 0. 0. 0. 0. 0. 0. 0. 0. 0. 0. 0. 0. 0. 0. 0. 0. 0. 0.
    0. 0. 0. 0. 0. 0. 0. 0. 0. 0. 0. 0. 0. 0. 0.</missing_subst>
  <oob_error>0.</oob_error>
  <ntrees>5</ntrees>
  <trees>
    <_>
      <nodes>
        <_>
          <depth>0</depth>
          <value>9.6202759756976619e-01</value>
          <splits>
            <_><var>44</var>
              <quality>7.2026820312500000e+04</quality>
              <le>2.0500000000000000e+01</le></_></splits></_>
        <_>
          <depth>1</depth>
          <value>9.0480244572578461e-01</value>
          <splits>
            <_><var>40</var>
              <quality>2.1227576171875000e+04</quality>
              <le>29.</le></_></splits></_>
        <_>
          <depth>2</depth>
          <value>8.7360517259359682e-01</value></_>
        <_>
          <depth>2</depth>
          <value>9.9459702836560104e-01</value></_>
        <_>
          <depth>1</depth>
          <value>9.9054911566725168e-01</value>
          <splits>
            <_><var>45</var>
              <quality>5.0877351562500000e+04</quality>
              <le>159.</le></_></splits></_>
        <_>
          <depth>2</depth>
          <value>9.9430187037842543e-01</value>
          <splits>
            <_><var>20</var>
              <quality>4.5467007812500000e+04</quality>
              <le>1.5000000000000000e+00</le></_></splits></_>
        <_>
          <depth>3</depth>
          <value>9.5799262465929136e-01</value>
          <splits>
            <_><var>20</var>
              <quality>5.7240893554687500e+03</quality>
              <le>5.0000000000000000e-01</le></_></splits></_>
        <_>
          <depth>4</depth>
          <value>9.5454545454545459e-01</value></_>
        <_>
          <depth>4</depth>
          <value>9.6186584950629894e-01</value></_>
        <_>
          <depth>3</depth>
          <value>1.</value>
          <splits>
            <_><var>38</var>
              <quality>39743.</quality>
              <le>2.</le></_></splits></_>
        <_>
          <depth>4</depth>
          <value>1.</value></_>
        <_>
          <depth>4</depth>
          <value>1.</value></_>
        <_>
          <depth>2</depth>
          <value>9.6113857167206407e-01</value>
          <splits>
            <_><var>38</var>
              <quality>5.4261025390625000e+03</quality>
              <le>1.7150000000000000e+02</le></_></splits></_>
        <_>
          <depth>3</depth>
          <value>9.3032258064516127e-01</value></_>
        <_>
          <depth>3</depth>
          <value>9.9566317311167329e-01</value></_></nodes></_>
    <_>
      <nodes>
        <_>
          <depth>0</depth>
          <value>9.4579456375224114e-01</value>
          <splits>
            <_><var>59</var>
              <quality>6.8696796875000000e+04</quality>
              <le>1.9500000000000000e+01</le></_></splits></_>
        <_>
          <depth>1</depth>
          <value>8.5829056804105464e-01</value>
          <splits>
            <_><var>4</var>
              <quality>2.2513728515625000e+04</quality>
              <le>1.2071068286895752e+00</le></_></splits></_>
        <_>
          <depth>2</depth>
          <value>8.9344795203351879e-01</value></_>
        <_>
          <depth>2</depth>
          <value>-8.5237258347978906e-01</value>
          <splits>
            <_><var>18</var>
              <quality>4.4402438354492188e+02</quality>
              <le>1.5000000000000000e+00</le></_></splits></_>
        <_>
          <depth>3</depth>
          <value>-4.8780487804878048e-01</value>
          <splits>
            <_><var>42</var>
              <quality>6.5176467895507812e+01</quality>
              <le>2.5000000000000000e+00</le></_></splits></_>
        <_>
          <depth>4</depth>
          <value>-1.</value></_>
        <_>
          <depth>4</depth>
          <value>-1.7647058823529413e-01</value></_>
        <_>
          <depth>3</depth>
          <value>-1.</value></_>
        <_>
          <depth>1</depth>
          <value>9.9713443249304368e-01</value></_></nodes></_>
    <_>
      <nodes>
        <_>
          <depth>0</depth>
          <value>8.8915470494417859e-01</value>
          <splits>
            <_><var>57</var>
              <quality>3.7891050781250000e+04</quality>
              <le>2.5500000000000000e+01</le></_></splits></_>
        <_>
          <depth>1</depth>
          <value>8.3939148729567892e-01</value></_>
        <_>
          <depth>1</depth>
          <value>9.8090350301366591e-01</value></_></nodes></_>
    <_>
      <nodes>
        <_>
          <depth>0</depth>
          <value>9.0722229434419488e-01</value></_></nodes></_>
    <_>
      <nodes>
        <_>
          <depth>0</depth>
          <value>9.6919453950031276e-01</value>
          <splits>
            <_><var>33</var>
              <quality>1.2815473437500000e+05</quality>
              <le>2.1500000000000000e+01</le></_></splits></_>
        <_>
          <depth>1</depth>
          <value>8.1622595516930740e-01</value>
          <splits>
            <_><var>41</var>
              <quality>1.2846276367187500e+04</quality>
              <le>4.7500000000000000e+01</le></_></splits></_>
        <_>
          <depth>2</depth>
          <value>7.3176321820912038e-01</value></_>
        <_>
          <depth>2</depth>
          <value>9.8809906722418783e-01</value>
          <splits>
            <_><var>53</var>
              <quality>6.0715200195312500e+03</quality>
              <le>8.5000000000000000e+00</le></_></splits></_>
        <_>
          <depth>3</depth>
          <value>9.9628252788104088e-01</value>
          <splits>
            <_><var>3</var>
              <quality>3766.</quality>
              <le>1.5000000000000000e+00</le></_></splits></_>
        <_>
          <depth>4</depth>
          <value>-1.</value></_>
        <_>
          <depth>4</depth>
          <value>1.</value></_>
        <_>
          <depth>3</depth>
          <value>9.7553017944535070e-01</value>
          <splits>
            <_><var>18</var>
              <quality>2.3687221679687500e+03</quality>
              <le>5.0000000000000000e-01</le></_></splits></_>
        <_>
          <depth>4</depth>
          <value>-1.</value></_>
        <_>
          <depth>4</depth>
          <value>9.8280802292263614e-01</value></_>
        <_>
          <depth>1</depth>
          <value>9.9386398208761340e-01</value>
          <splits>
            <_><var>54</var>
              <quality>1.1561930468750000e+05</quality>
              <le>2.3750000000000000e+02</le></_></splits></_>
        <_>
          <depth>2</depth>
          <value>9.9675421513412987e-01</value>
          <splits>
            <_><var>56</var>
              <quality>1.1326221093750000e+05</quality>
              <le>1.5000000000000000e+00</le></_></splits></_>
        <_>
          <depth>3</depth>
          <value>9.6510392960097102e-01</value>
          <splits>
            <_><var>46</var>
              <quality>6.1450805664062500e+03</quality>
              <le>1.5000000000000000e+00</le></_></splits></_>
        <_>
          <depth>4</depth>
          <value>9.9625585023400931e-01</value></_>
        <_>
          <depth>4</depth>
          <value>9.3561724748966335e-01</value></_>
        <_>
          <depth>3</depth>
          <value>9.9869649823561724e-01</value>
          <splits>
            <_><var>10</var>
              <quality>1.0717996875000000e+05</quality>
              <le>5.0000000000000000e-01</le></_></splits></_>
        <_>
          <depth>4</depth>
          <value>3.5294117647058826e-01</value></_>
        <_>
          <depth>4</depth>
          <value>9.9951522835541218e-01</value></_>
        <_>
          <depth>2</depth>
          <value>8.8476821192052979e-01</value>
          <splits>
            <_><var>56</var>
              <quality>2.4057097167968750e+03</quality>
              <le>61.</le></_></splits></_>
        <_>
          <depth>3</depth>
          <value>7.2868927589367549e-01</value>
          <splits>
            <_><var>56</var>
              <quality>1091.</quality>
              <le>4.6500000000000000e+01</le></_></splits></_>
        <_>
          <depth>4</depth>
          <value>1.</value></_>
        <_>
          <depth>4</depth>
          <value>-1.</value></_>
        <_>
          <depth>3</depth>
          <value>9.7304302747537585e-01</value></_></nodes></_></trees></opencv_ml_rtrees>
</opencv_storage>
