<?xml version="1.0"?>
<opencv_storage>
<opencv_ml_rtrees>
  <format>3</format>
  <is_classifier>0</is_classifier>
  <var_all>61</var_all>
  <var_count>60</var_count>
  <ord_var_count>61</ord_var_count>
  <cat_var_count>0</cat_var_count>
  <training_params>
    <use_surrogates>0</use_surrogates>
    <max_categories>15</max_categories>
    <regression_accuracy>0.</regression_accuracy>
    <max_depth>4</max_depth>
    <min_sample_count>2</min_sample_count>
    <cross_validation_folds>0</cross_validation_folds>
    <nactive_vars>1</nactive_vars></training_params>
  <global_var_idx>1</global_var_idx>
  <var_idx>
    0 1 2 3 4 5 6 7 8 9 10 11 12 13 14 15 16 17 18 19 20 21 22 23 24 25
    26 27 28 29 30 31 32 33 34 35 36 37 38 39 40 41 42 43 44 45 46 47 48
    49 50 51 52 53 54 55 56 57 58 59</var_idx>
  <var_type>
    0 0 0 0 0 0 0 0 0 0 0 0 0 0 0 0 0 0 0 0 0 0 0 0 0 0 0 0 0 0 0 0 0 0
    0 0 0 0 0 0 0 0 0 0 0 0 0 0 0 0 0 0 0 0 0 0 0 0 0 0 0</var_type>
  <cat_ofs>
    0 0 0 0 0 0 0 0 0 0 0 0 0 0 0 0 0 0 0 0 0 0 0 0 0 0 0 0 0 0 0 0 0 0
    0 0 0 0 0 0 0 0 0 0 0 0 0 0 0 0 0 0 0 0 0 0 0 0 0 0 0 0 0 0 0 0 0 0
    0 0 0 0 0 0 0 0 0 0 0 0 0 0 0 0 0 0 0 0 0 0 0 0 0 0 0 0 0 0 0 0 0 0
    0 0 0 0 0 0 0 0 0 0 0 0 0 0 0 0 0 0</cat_ofs>
  <missing_subst>
    0. 0. 0. 0. 0. 0. 0. 0. 0. 0. 0. 0. 0. 0. 0. 0. 0. 0. 0. 0. 0. 0. 0.
    0. 0. 0. 0. 0. 0. 0. 0. 0. 0. 0. 0. 0. 0. 0. 0. 0. 0. 0. 0. 0. 0. 0.
    0. 0. 0. 0. 0. 0. 0. 0. 0. 0. 0. 0. 0. 0. 0.</missing_subst>
  <oob_error>0.</oob_error>
  <ntrees>5</ntrees>
  <trees>
    <_>
      <nodes>
        <_>
          <depth>0</depth>
          <value>-8.7532499152196033e-02</value>
          <splits>
            <_><var>22</var>
              <quality>2.2097380859375000e+04</quality>
              <le>334.</le></_></splits></_>
        <_>
          <depth>1</depth>
          <value>-1.2465745109896656e-01</value>
          <splits>
            <_><var>16</var>
              <quality>1.5003084960937500e+04</quality>
              <le>3.5000000000000000e+00</le></_></splits></_>
        <_>
          <depth>2</depth>
          <value>-7.6978417266187049e-01</value>
          <splits>
            <_><var>7</var>
              <quality>1.1818268554687500e+04</quality>
              <le>5.0000000000000000e-01</le></_></splits></_>
        <_>
          <depth>3</depth>
          <value>-9.3321029967483959e-01</value></_>
        <_>
          <depth>3</depth>
          <value>-5.1317786670346355e-01</value></_>
        <_>
          <depth>2</depth>
          <value>-9.6463875026102708e-02</value>
          <splits>
            <_><var>41</var>
              <quality>1.4882442382812500e+04</quality>
              <le>1.2500000000000000e+01</le></_></splits></_>
        <_>
          <depth>3</depth>
          <value>-3.7019912686278483e-01</value>
          <splits>
            <_><var>2</var>
              <quality>1.7957640625000000e+04</quality>
              <le>6.8500000000000000e+01</le></_></splits></_>
        <_>
          <depth>4</depth>
          <value>-3.9088809730831442e-01</value></_>
        <_>
          <depth>4</depth>
          <value>1.</value></_>
        <_>
          <depth>3</depth>
          <value>-2.8933308566337244e-03</value>
          <splits>
            <_><var>37</var>
              <quality>4.0656435546875000e+03</quality>
              <le>5.9500000000000000e+01</le></_></splits></_>
        <_>
          <depth>4</depth>
          <value>6.7261328659743477e-02</value></_>
        <_>
          <depth>4</depth>
          <value>-1.8522883074796323e-01</value></_>
        <_>
          <depth>1</depth>
          <value>1.</value></_></nodes></_>
    <_>
      <nodes>
        <_>
          <depth>0</depth>
          <value>-1.7713731521664593e-02</value>
          <splits>
            <_><var>52</var>
              <quality>6.5978559570312500e+03</quality>
              <le>1.2750000000000000e+02</le></_></splits></_>
        <_>
          <depth>1</depth>
          <value>-4.0465045127734432e-02</value>
          <splits>
            <_><var>52</var>
              <quality>3.6656533203125000e+03</quality>
              <le>1.9500000000000000e+01</le></_></splits></_>
        <_>
          <depth>2</depth>
          <value>-1.3049365578042424e-01</value>
          <splits>
            <_><var>16</var>
              <quality>3.2453425781250000e+04</quality>
              <le>768.</le></_></splits></_>
        <_>
          <depth>3</depth>
          <value>-2.5525827613994667e-01</value></_>
        <_>
          <depth>3</depth>
          <value>1.</value>
          <splits>
            <_><var>20</var>
              <quality>20406.</quality>
              <le>522.</le></_></splits></_>
        <_>
          <depth>4</depth>
          <value>1.</value></_>
        <_>
          <depth>4</depth>
          <value>1.</value></_>
        <_>
          <depth>2</depth>
          <value>2.4395550408814963e-02</value>
          <splits>
            <_><var>16</var>
              <quality>3.1343322265625000e+04</quality>
              <le>4.3450000000000000e+02</le></_></splits></_>
        <_>
          <depth>3</depth>
          <value>-8.7732888878455678e-02</value></_>
        <_>
          <depth>3</depth>
          <value>1.</value>
          <splits>
            <_><var>5</var>
              <quality>29376.</quality>
              <le>5.7437222450971603e-02</le></_></splits></_>
        <_>
          <depth>4</depth>
          <value>1.</value></_>
        <_>
          <depth>4</depth>
          <value>1.</value></_>
        <_>
          <depth>1</depth>
          <value>5.3667992047713720e-01</value>
          <splits>
            <_><var>38</var>
              <quality>6.1663505859375000e+03</quality>
              <le>76.</le></_></splits></_>
        <_>
          <depth>2</depth>
          <value>4.0299383621954799e-01</value>
          <splits>
            <_><var>10</var>
              <quality>3.1427595214843750e+03</quality>
              <le>4.5000000000000000e+00</le></_></splits></_>
        <_>
          <depth>3</depth>
          <value>-5.9876065065840434e-01</value></_>
        <_>
          <depth>3</depth>
          <value>5.4781634938409851e-01</value>
          <splits>
            <_><var>53</var>
              <quality>5.4717255859375000e+03</quality>
              <le>2.5450000000000000e+02</le></_></splits></_>
        <_>
          <depth>4</depth>
          <value>8.4073069787355503e-01</value></_>
        <_>
          <depth>4</depth>
          <value>-5.1950078003120126e-01</value></_>
        <_>
          <depth>2</depth>
          <value>6.7471461763814522e-01</value></_></nodes></_>
    <_>
      <nodes>
        <_>
          <depth>0</depth>
          <value>9.0330618964980201e-03</value></_></nodes></_>
    <_>
      <nodes>
        <_>
          <depth>0</depth>
          <value>-4.4958512154428448e-02</value>
          <splits>
            <_><var>20</var>
              <quality>8.4807414062500000e+04</quality>
              <le>73.</le></_></splits></_>
        <_>
          <depth>1</depth>
          <value>-2.6255268628782658e-01</value>
          <splits>
            <_><var>43</var>
              <quality>4.2092031250000000e+04</quality>
              <le>2.4500000000000000e+01</le></_></splits></_>
        <_>
          <depth>2</depth>
          <value>-5.5506518582218511e-01</value>
          <splits>
            <_><var>37</var>
              <quality>4.2513515625000000e+04</quality>
              <le>3.4500000000000000e+01</le></_></splits></_>
        <_>
          <depth>3</depth>
          <value>-6.0674538604108841e-01</value></_>
        <_>
          <depth>3</depth>
          <value>1.5707434052757793e-01</value>
          <splits>
            <_><var>52</var>
              <quality>1.0807152099609375e+03</quality>
              <le>1.4500000000000000e+01</le></_></splits></_>
        <_>
          <depth>4</depth>
          <value>4.3529902062929776e-01</value></_>
        <_>
          <depth>4</depth>
          <value>-2.1999435187800057e-01</value></_>
        <_>
          <depth>2</depth>
          <value>-1.2520237247201069e-01</value>
          <splits>
            <_><var>55</var>
              <quality>8.2041406250000000e+03</quality>
              <le>1.2950000000000000e+02</le></_></splits></_>
        <_>
          <depth>3</depth>
          <value>-1.5330243429952850e-01</value></_>
        <_>
          <depth>3</depth>
          <value>4.2913541255428345e-01</value>
          <splits>
            <_><var>2</var>
              <quality>3.5224667968750000e+03</quality>
              <le>3.5000000000000000e+00</le></_></splits></_>
        <_>
          <depth>4</depth>
          <value>-7.6500638569604085e-01</value></_>
        <_>
          <depth>4</depth>
          <value>5.0782696515738091e-01</value></_>
        <_>
          <depth>1</depth>
          <value>7.3587713831241919e-01</value>
          <splits>
            <_><var>46</var>
              <quality>6.1638195312500000e+04</quality>
              <le>9.5000000000000000e+00</le></_></splits></_>
        <_>
          <depth>2</depth>
          <value>1.</value></_>
        <_>
          <depth>2</depth>
          <value>6.1529915456319095e-01</value>
          <splits>
            <_><var>34</var>
              <quality>4.6451511718750000e+04</quality>
              <le>1.7500000000000000e+01</le></_></splits></_>
        <_>
          <depth>3</depth>
          <value>-5.3147208121827416e-01</value>
          <splits>
            <_><var>36</var>
              <quality>8.0020844726562500e+03</quality>
              <le>6.</le></_></splits></_>
        <_>
          <depth>4</depth>
          <value>1.</value></_>
        <_>
          <depth>4</depth>
          <value>-7.8908875271792844e-01</value></_>
        <_>
          <depth>3</depth>
          <value>8.3396786474801576e-01</value></_></nodes></_>
    <_>
      <nodes>
        <_>
          <depth>0</depth>
          <value>-6.4757834024255223e-02</value>
          <splits>
            <_><var>53</var>
              <quality>4.3944189453125000e+03</quality>
              <le>3.5000000000000000e+00</le></_></splits></_>
        <_>
          <depth>1</depth>
          <value>1.6759301958690323e-01</value>
          <splits>
            <_><var>28</var>
              <quality>1.1073481445312500e+04</quality>
              <le>3.5000000000000000e+00</le></_></splits></_>
        <_>
          <depth>2</depth>
          <value>-3.9125585545393710e-01</value>
          <splits>
            <_><var>28</var>
              <quality>4.6607524414062500e+03</quality>
              <le>5.0000000000000000e-01</le></_></splits></_>
        <_>
          <depth>3</depth>
          <value>-6.6202745909347371e-01</value>
          <splits>
            <_><var>31</var>
              <quality>5.4119941406250000e+03</quality>
              <le>5.0000000000000000e-01</le></_></splits></_>
        <_>
          <depth>4</depth>
          <value>-9.1101694915254239e-01</value></_>
        <_>
          <depth>4</depth>
          <value>-3.7826961770623740e-01</value></_>
        <_>
          <depth>3</depth>
          <value>3.2885722115648121e-03</value></_>
        <_>
          <depth>2</depth>
          <value>5.9826378443422579e-01</value></_>
        <_>
          <depth>1</depth>
          <value>-8.7291069877578301e-02</value>
          <splits>
            <_><var>38</var>
              <quality>6.5434560546875000e+03</quality>
              <le>1.5500000000000000e+01</le></_></splits></_>
        <_>
          <depth>2</depth>
          <value>-2.4445405065529641e-01</value>
          <splits>
            <_><var>43</var>
              <quality>1.0098358398437500e+04</quality>
              <le>3.2500000000000000e+01</le></_></splits></_>
        <_>
          <depth>3</depth>
          <value>-3.1722754624470695e-01</value>
          <splits>
            <_><var>22</var>
              <quality>3.0145361328125000e+04</quality>
              <le>317.</le></_></splits></_>
        <_>
          <depth>4</depth>
          <value>-4.9584936221907266e-01</value></_>
        <_>
          <depth>4</depth>
          <value>1.</value></_>
        <_>
          <depth>3</depth>
          <value>2.9769217997675579e-01</value></_>
        <_>
          <depth>2</depth>
          <value>-3.7773519843247477e-02</value></_></nodes></_></trees></opencv_ml_rtrees>
</opencv_storage>
